digraph Tree {
node [shape=box, fontname="helvetica"] ;
edge [fontname="helvetica"] ;
0 [label="男性 <= 0.5\nentropy = 0.925\nsamples = 262\nvalue = [173, 89]"] ;
1 [label="pclass=3rd <= 0.5\nentropy = 0.91\nsamples = 86\nvalue = [28, 58]"] ;
0 -> 1 [labeldistance=2.5, labelangle=45, headlabel="True"] ;
2 [label="pclass=2nd <= 0.5\nentropy = 0.414\nsamples = 48\nvalue = [4, 44]"] ;
1 -> 2 ;
3 [label="entropy = 0.0\nsamples = 25\nvalue = [0, 25]"] ;
2 -> 3 ;
4 [label="age <= 15.5\nentropy = 0.667\nsamples = 23\nvalue = [4, 19]"] ;
2 -> 4 ;
5 [label="entropy = 0.0\nsamples = 4\nvalue = [0, 4]"] ;
4 -> 5 ;
6 [label="age <= 19.5\nentropy = 0.742\nsamples = 19\nvalue = [4, 15]"] ;
4 -> 6 ;
7 [label="entropy = 1.0\nsamples = 2\nvalue = [1, 1]"] ;
6 -> 7 ;
8 [label="entropy = 0.672\nsamples = 17\nvalue = [3, 14]"] ;
6 -> 8 ;
9 [label="age <= 12.5\nentropy = 0.949\nsamples = 38\nvalue = [24, 14]"] ;
1 -> 9 ;
10 [label="entropy = 0.0\nsamples = 2\nvalue = [2, 0]"] ;
9 -> 10 ;
11 [label="age <= 16.5\nentropy = 0.964\nsamples = 36\nvalue = [22, 14]"] ;
9 -> 11 ;
12 [label="entropy = 0.0\nsamples = 1\nvalue = [0, 1]"] ;
11 -> 12 ;
13 [label="age <= 17.5\nentropy = 0.952\nsamples = 35\nvalue = [22, 13]"] ;
11 -> 13 ;
14 [label="entropy = 1.0\nsamples = 2\nvalue = [1, 1]"] ;
13 -> 14 ;
15 [label="entropy = 0.946\nsamples = 33\nvalue = [21, 12]"] ;
13 -> 15 ;
16 [label="pclass=1st <= 0.5\nentropy = 0.672\nsamples = 176\nvalue = [145, 31]"] ;
0 -> 16 [labeldistance=2.5, labelangle=-45, headlabel="False"] ;
17 [label="age <= 8.5\nentropy = 0.563\nsamples = 144\nvalue = [125, 19]"] ;
16 -> 17 ;
18 [label="pclass=2nd <= 0.5\nentropy = 0.811\nsamples = 4\nvalue = [1, 3]"] ;
17 -> 18 ;
19 [label="age <= 3.417\nentropy = 1.0\nsamples = 2\nvalue = [1, 1]"] ;
18 -> 19 ;
20 [label="entropy = 0.0\nsamples = 1\nvalue = [0, 1]"] ;
19 -> 20 ;
21 [label="entropy = 0.0\nsamples = 1\nvalue = [1, 0]"] ;
19 -> 21 ;
22 [label="entropy = 0.0\nsamples = 2\nvalue = [0, 2]"] ;
18 -> 22 ;
23 [label="age <= 18.5\nentropy = 0.513\nsamples = 140\nvalue = [124, 16]"] ;
17 -> 23 ;
24 [label="entropy = 0.0\nsamples = 7\nvalue = [7, 0]"] ;
23 -> 24 ;
25 [label="age <= 20.5\nentropy = 0.53\nsamples = 133\nvalue = [117, 16]"] ;
23 -> 25 ;
26 [label="entropy = 0.985\nsamples = 7\nvalue = [4, 3]"] ;
25 -> 26 ;
27 [label="entropy = 0.479\nsamples = 126\nvalue = [113, 13]"] ;
25 -> 27 ;
28 [label="age <= 29.597\nentropy = 0.954\nsamples = 32\nvalue = [20, 12]"] ;
16 -> 28 ;
29 [label="age <= 26.5\nentropy = 0.65\nsamples = 6\nvalue = [1, 5]"] ;
28 -> 29 ;
30 [label="entropy = 0.0\nsamples = 3\nvalue = [0, 3]"] ;
29 -> 30 ;
31 [label="age <= 27.5\nentropy = 0.918\nsamples = 3\nvalue = [1, 2]"] ;
29 -> 31 ;
32 [label="entropy = 1.0\nsamples = 2\nvalue = [1, 1]"] ;
31 -> 32 ;
33 [label="entropy = 0.0\nsamples = 1\nvalue = [0, 1]"] ;
31 -> 33 ;
34 [label="age <= 57.0\nentropy = 0.84\nsamples = 26\nvalue = [19, 7]"] ;
28 -> 34 ;
35 [label="age <= 43.5\nentropy = 0.902\nsamples = 22\nvalue = [15, 7]"] ;
34 -> 35 ;
36 [label="entropy = 0.971\nsamples = 10\nvalue = [6, 4]"] ;
35 -> 36 ;
37 [label="entropy = 0.811\nsamples = 12\nvalue = [9, 3]"] ;
35 -> 37 ;
38 [label="entropy = 0.0\nsamples = 4\nvalue = [4, 0]"] ;
34 -> 38 ;
}